<?xml version="1.0"?>
<!-- DTD for the XMLBIF 0.3 format -->
<!DOCTYPE BIF [
	<!ELEMENT BIF ( NETWORK )*>
	      <!ATTLIST BIF VERSION CDATA #REQUIRED>
	<!ELEMENT NETWORK ( NAME, ( PROPERTY | VARIABLE | DEFINITION )* )>
	<!ELEMENT NAME (#PCDATA)>
	<!ELEMENT VARIABLE ( NAME, ( OUTCOME |  PROPERTY )* ) >
	      <!ATTLIST VARIABLE TYPE (nature|decision|utility) "nature">
	<!ELEMENT OUTCOME (#PCDATA)>
	<!ELEMENT DEFINITION ( FOR | GIVEN | TABLE | PROPERTY )* >
	<!ELEMENT FOR (#PCDATA)>
	<!ELEMENT GIVEN (#PCDATA)>
	<!ELEMENT TABLE (#PCDATA)>
	<!ELEMENT PROPERTY (#PCDATA)>
]>


<BIF VERSION="0.3">
<NETWORK>
<NAME>RandomNet</NAME>
<VARIABLE TYPE="nature">
	<NAME>Node1</NAME>
	<OUTCOME>Value1</OUTCOME>
	<OUTCOME>Value2</OUTCOME>
	<PROPERTY>position = (0,0)</PROPERTY>
</VARIABLE>
<VARIABLE TYPE="nature">
	<NAME>Node2</NAME>
	<OUTCOME>Value1</OUTCOME>
	<OUTCOME>Value2</OUTCOME>
	<PROPERTY>position = (49,96)</PROPERTY>
</VARIABLE>
<VARIABLE TYPE="nature">
	<NAME>Node3</NAME>
	<OUTCOME>Value1</OUTCOME>
	<OUTCOME>Value2</OUTCOME>
	<PROPERTY>position = (49,192)</PROPERTY>
</VARIABLE>
<VARIABLE TYPE="nature">
	<NAME>Node4</NAME>
	<OUTCOME>Value1</OUTCOME>
	<OUTCOME>Value2</OUTCOME>
	<PROPERTY>position = (0,288)</PROPERTY>
</VARIABLE>
<VARIABLE TYPE="nature">
	<NAME>Node5</NAME>
	<OUTCOME>Value1</OUTCOME>
	<OUTCOME>Value2</OUTCOME>
	<PROPERTY>position = (49,288)</PROPERTY>
</VARIABLE>
<DEFINITION>
<FOR>Node1</FOR>
<TABLE>
0.4080919080919081 0.5919080919080919 
</TABLE>
</DEFINITION>
<DEFINITION>
<FOR>Node2</FOR>
	<GIVEN>Node1</GIVEN>
<TABLE>
0.6098901098901099 0.3901098901098901 
0.4160839160839161 0.583916083916084 
</TABLE>
</DEFINITION>
<DEFINITION>
<FOR>Node3</FOR>
	<GIVEN>Node2</GIVEN>
<TABLE>
0.7467532467532467 0.2532467532467532 
0.528971028971029 0.471028971028971 
</TABLE>
</DEFINITION>
<DEFINITION>
<FOR>Node4</FOR>
	<GIVEN>Node3</GIVEN>
	<GIVEN>Node1</GIVEN>
<TABLE>
0.16233766233766234 0.8376623376623377 
0.479020979020979 0.5209790209790209 
0.3041958041958042 0.6958041958041958 
0.08241758241758242 0.9175824175824175 
</TABLE>
</DEFINITION>
<DEFINITION>
<FOR>Node5</FOR>
	<GIVEN>Node3</GIVEN>
	<GIVEN>Node2</GIVEN>
<TABLE>
0.008491508491508492 0.9915084915084915 
0.8406593406593407 0.15934065934065933 
0.44005994005994004 0.5599400599400599 
0.9735264735264735 0.026473526473526472 
</TABLE>
</DEFINITION>
</NETWORK>
</BIF>
